digraph Tree {
node [shape=box, style="filled, rounded", color="black", fontname="helvetica"] ;
edge [fontname="helvetica"] ;
0 [label="x[0] <= -0.36\nsquared_error = 0.056\nsamples = 100\nvalue = 0.265", fillcolor="#f8decb"] ;
1 [label="x[0] <= -0.43\nsquared_error = 0.012\nsamples = 18\nvalue = 0.574", fillcolor="#e99559"] ;
0 -> 1 [labeldistance=2.5, labelangle=45, headlabel="True"] ;
2 [label="squared_error = 0.004\nsamples = 9\nvalue = 0.661", fillcolor="#e58139"] ;
1 -> 2 ;
3 [label="squared_error = 0.005\nsamples = 9\nvalue = 0.488", fillcolor="#edaa79"] ;
1 -> 3 ;
4 [label="x[0] <= 0.322\nsquared_error = 0.04\nsamples = 82\nvalue = 0.198", fillcolor="#fbeee4"] ;
0 -> 4 [labeldistance=2.5, labelangle=-45, headlabel="False"] ;
5 [label="squared_error = 0.016\nsamples = 67\nvalue = 0.124", fillcolor="#ffffff"] ;
4 -> 5 ;
6 [label="squared_error = 0.013\nsamples = 15\nvalue = 0.529", fillcolor="#eba06a"] ;
4 -> 6 ;
}